<?xml version="1.0"?>
<opencv_storage>
<stage4>
  <maxWeakCount>9</maxWeakCount>
  <stageThreshold>-5.5205678939819336e-01</stageThreshold>
  <weakClassifiers>
    <_>
      <internalNodes>
        0 -1 576713 9.9013163708150387e-04</internalNodes>
      <leafValues>
        -2.6145553588867188e-01 6.5832108259201050e-01</leafValues></_>
    <_>
      <internalNodes>
        0 -1 1299343 3.8173334905877709e-04</internalNodes>
      <leafValues>
        3.1466341018676758e-01 -6.6923397779464722e-01</leafValues></_>
    <_>
      <internalNodes>
        0 -1 927725 -2.3299038875848055e-03</internalNodes>
      <leafValues>
        5.1117569208145142e-01 -3.3461299538612366e-01</leafValues></_>
    <_>
      <internalNodes>
        0 -1 1462919 -4.8352479934692383e-03</internalNodes>
      <leafValues>
        6.5760976076126099e-01 -2.1916064620018005e-01</leafValues></_>
    <_>
      <internalNodes>
        0 -1 454815 4.4135437346994877e-03</internalNodes>
      <leafValues>
        -3.1569841504096985e-01 5.5481386184692383e-01</leafValues></_>
    <_>
      <internalNodes>
        0 -1 1291916 -5.0054945051670074e-02</internalNodes>
      <leafValues>
        -6.8712741136550903e-01 2.7067667245864868e-01</leafValues></_>
    <_>
      <internalNodes>
        0 -1 709763 -5.7484069839119911e-04</internalNodes>
      <leafValues>
        2.3986598849296570e-01 -6.0230880975723267e-01</leafValues></_>
    <_>
      <internalNodes>
        0 -1 689562 2.2543282248079777e-03</internalNodes>
      <leafValues>
        -3.0193021893501282e-01 5.0623899698257446e-01</leafValues></_>
    <_>
      <internalNodes>
        0 -1 767964 -2.2501323837786913e-03</internalNodes>
      <leafValues>
        -8.0571365356445312e-01 2.3132312297821045e-01</leafValues></_></weakClassifiers></stage4>
</opencv_storage>
