<?xml version="1.0"?>
<opencv_storage>
<stage6>
  <maxWeakCount>10</maxWeakCount>
  <stageThreshold>-9.2977815866470337e-01</stageThreshold>
  <weakClassifiers>
    <_>
      <internalNodes>
        0 -1 687687 7.9485271126031876e-03</internalNodes>
      <leafValues>
        -1.0126582533121109e-01 6.9097220897674561e-01</leafValues></_>
    <_>
      <internalNodes>
        0 -1 1285154 -2.1479822695255280e-02</internalNodes>
      <leafValues>
        5.0860911607742310e-01 -2.8183498978614807e-01</leafValues></_>
    <_>
      <internalNodes>
        0 -1 935751 -2.9142515268176794e-04</internalNodes>
      <leafValues>
        -5.9489846229553223e-01 2.4933396279811859e-01</leafValues></_>
    <_>
      <internalNodes>
        0 -1 830457 -1.8549647647887468e-03</internalNodes>
      <leafValues>
        4.0703406929969788e-01 -3.6450609564781189e-01</leafValues></_>
    <_>
      <internalNodes>
        0 -1 826292 -2.2433098638430238e-04</internalNodes>
      <leafValues>
        1.8348367512226105e-01 -7.5675797462463379e-01</leafValues></_>
    <_>
      <internalNodes>
        0 -1 709836 -1.4743148349225521e-03</internalNodes>
      <leafValues>
        -5.4689216613769531e-01 2.2074213624000549e-01</leafValues></_>
    <_>
      <internalNodes>
        0 -1 935061 9.7725496743805707e-05</internalNodes>
      <leafValues>
        -7.7360588312149048e-01 1.8636071681976318e-01</leafValues></_>
    <_>
      <internalNodes>
        0 -1 771486 2.0974542712792754e-04</internalNodes>
      <leafValues>
        1.4858368039131165e-01 -6.8239539861679077e-01</leafValues></_>
    <_>
      <internalNodes>
        0 -1 710792 -6.6690926905721426e-04</internalNodes>
      <leafValues>
        -7.9303878545761108e-01 1.5221336483955383e-01</leafValues></_>
    <_>
      <internalNodes>
        0 -1 1325482 1.7973387730307877e-04</internalNodes>
      <leafValues>
        -4.1921743750572205e-01 3.4750077128410339e-01</leafValues></_></weakClassifiers></stage6>
</opencv_storage>
